Language model created by QuickLM on Thu Mar 22 17:06:54 EDT 2018
Copyright (c) 1996-2010 Carnegie Mellon University and Alexander I. Rudnicky

The model is in standard ARPA format, designed by Doug Paul while he was at MITRE.

The code that was used to produce this language model is available in Open Source.
Please visit http://www.speech.cs.cmu.edu/tools/ for more information

The (fixed) discount mass is 0.5. The backoffs are computed using the ratio method.
This model based on a corpus of 420 sentences and 67 words

\data\
ngram 1=67
ngram 2=256
ngram 3=492

\1-grams:
-1.0000 </s> -0.3010
-1.0000 <s> -0.2041
-2.8451 A1 -0.2041
-2.5819 A2 -0.2041
-2.5819 A3 -0.2041
-2.5819 A4 -0.2041
-2.5819 A5 -0.2041
-2.5819 A6 -0.2041
-2.5819 A7 -0.2041
-2.8451 A8 -0.2041
-2.6690 B1 -0.2041
-2.4191 B2 -0.2041
-2.4191 B3 -0.2041
-2.4191 B4 -0.2041
-2.4191 B5 -0.2041
-2.4191 B6 -0.2041
-2.4191 B7 -0.2041
-2.6690 B8 -0.2041
-2.6690 C1 -0.2041
-2.4191 C2 -0.2041
-2.4191 C3 -0.2041
-2.4191 C4 -0.2041
-2.4191 C5 -0.2041
-2.4191 C6 -0.2041
-2.4191 C7 -0.2041
-2.6690 C8 -0.2041
-2.6690 D1 -0.2041
-2.4191 D2 -0.2041
-2.4191 D3 -0.2041
-2.4191 D4 -0.2041
-2.4191 D5 -0.2041
-2.4191 D6 -0.2041
-2.4191 D7 -0.2041
-2.6690 D8 -0.2041
-2.6690 E1 -0.2041
-2.4191 E2 -0.2041
-2.4191 E3 -0.2041
-2.4191 E4 -0.2041
-2.4191 E5 -0.2041
-2.4191 E6 -0.2041
-2.4191 E7 -0.2041
-2.6690 E8 -0.2041
-2.6690 F1 -0.2041
-2.4191 F2 -0.2041
-2.4191 F3 -0.2041
-2.4191 F4 -0.2041
-2.4191 F5 -0.2041
-2.4191 F6 -0.2041
-2.4191 F7 -0.2041
-2.6690 F8 -0.2041
-2.6690 G1 -0.2041
-2.4191 G2 -0.2041
-2.4191 G3 -0.2041
-2.4191 G4 -0.2041
-2.4191 G5 -0.2041
-2.4191 G6 -0.2041
-2.4191 G7 -0.2041
-2.6690 G8 -0.2041
-2.8451 H1 -0.2041
-2.5819 H2 -0.2041
-2.5819 H3 -0.2041
-2.5819 H4 -0.2041
-2.5819 H5 -0.2041
-2.5819 H6 -0.2041
-2.5819 H7 -0.2041
-2.8451 H8 -0.2041
-1.0000 TO -0.2041

\2-grams:
-2.4472 <s> A1 -0.1761
-2.2253 <s> A2 -0.1891
-2.2253 <s> A3 -0.1891
-2.2253 <s> A4 -0.1891
-2.2253 <s> A5 -0.1891
-2.2253 <s> A6 -0.1891
-2.2253 <s> A7 -0.1891
-2.6232 <s> A8 -0.2218
-2.2253 <s> B1 -0.1597
-2.0212 <s> B2 -0.1761
-2.0212 <s> B3 -0.1761
-2.0212 <s> B4 -0.1761
-2.0212 <s> B5 -0.1761
-2.0212 <s> B6 -0.1761
-2.0212 <s> B7 -0.1761
-2.3222 <s> B8 -0.1919
-2.2253 <s> C1 -0.1597
-2.0212 <s> C2 -0.1761
-2.0212 <s> C3 -0.1761
-2.0212 <s> C4 -0.1761
-2.0212 <s> C5 -0.1761
-2.0212 <s> C6 -0.1761
-2.0212 <s> C7 -0.1761
-2.3222 <s> C8 -0.1919
-2.2253 <s> D1 -0.1597
-2.0212 <s> D2 -0.1761
-2.0212 <s> D3 -0.1761
-2.0212 <s> D4 -0.1761
-2.0212 <s> D5 -0.1761
-2.0212 <s> D6 -0.1761
-2.0212 <s> D7 -0.1761
-2.3222 <s> D8 -0.1919
-2.2253 <s> E1 -0.1597
-2.0212 <s> E2 -0.1761
-2.0212 <s> E3 -0.1761
-2.0212 <s> E4 -0.1761
-2.0212 <s> E5 -0.1761
-2.0212 <s> E6 -0.1761
-2.0212 <s> E7 -0.1761
-2.3222 <s> E8 -0.1919
-2.2253 <s> F1 -0.1597
-2.0212 <s> F2 -0.1761
-2.0212 <s> F3 -0.1761
-2.0212 <s> F4 -0.1761
-2.0212 <s> F5 -0.1761
-2.0212 <s> F6 -0.1761
-2.0212 <s> F7 -0.1761
-2.3222 <s> F8 -0.1919
-2.2253 <s> G1 -0.1597
-2.0212 <s> G2 -0.1761
-2.0212 <s> G3 -0.1761
-2.0212 <s> G4 -0.1761
-2.0212 <s> G5 -0.1761
-2.0212 <s> G6 -0.1761
-2.0212 <s> G7 -0.1761
-2.3222 <s> G8 -0.1919
-2.3222 <s> H1 -0.1249
-2.1461 <s> H2 -0.1627
-2.1461 <s> H3 -0.1627
-2.1461 <s> H4 -0.1627
-2.1461 <s> H5 -0.1627
-2.1461 <s> H6 -0.1627
-2.1461 <s> H7 -0.1627
-2.4472 <s> H8 -0.1761
-0.6021 A1 </s> -0.3010
-0.6021 A1 TO -0.2937
-0.5643 A2 </s> -0.3010
-0.6435 A2 TO -0.2900
-0.5643 A3 </s> -0.3010
-0.6435 A3 TO -0.2863
-0.5643 A4 </s> -0.3010
-0.6435 A4 TO -0.2863
-0.5643 A5 </s> -0.3010
-0.6435 A5 TO -0.2863
-0.5643 A6 </s> -0.3010
-0.6435 A6 TO -0.2863
-0.5643 A7 </s> -0.3010
-0.6435 A7 TO -0.2890
-0.4771 A8 </s> -0.3010
-0.7782 A8 TO -0.2937
-0.6532 B1 </s> -0.3010
-0.5563 B1 TO -0.2879
-0.6021 B2 </s> -0.3010
-0.6021 B2 TO -0.2804
-0.6021 B3 </s> -0.3010
-0.6021 B3 TO -0.2744
-0.6021 B4 </s> -0.3010
-0.6021 B4 TO -0.2744
-0.6021 B5 </s> -0.3010
-0.6021 B5 TO -0.2744
-0.6021 B6 </s> -0.3010
-0.6021 B6 TO -0.2744
-0.6021 B7 </s> -0.3010
-0.6021 B7 TO -0.2788
-0.5563 B8 </s> -0.3010
-0.6532 B8 TO -0.2874
-0.6532 C1 </s> -0.3010
-0.5563 C1 TO -0.2863
-0.6021 C2 </s> -0.3010
-0.6021 C2 TO -0.2777
-0.6021 C3 </s> -0.3010
-0.6021 C3 TO -0.2711
-0.6021 C4 </s> -0.3010
-0.6021 C4 TO -0.2711
-0.6021 C5 </s> -0.3010
-0.6021 C5 TO -0.2711
-0.6021 C6 </s> -0.3010
-0.6021 C6 TO -0.2711
-0.6021 C7 </s> -0.3010
-0.6021 C7 TO -0.2760
-0.5563 C8 </s> -0.3010
-0.6532 C8 TO -0.2858
-0.6532 D1 </s> -0.3010
-0.5563 D1 TO -0.2863
-0.6021 D2 </s> -0.3010
-0.6021 D2 TO -0.2777
-0.6021 D3 </s> -0.3010
-0.6021 D3 TO -0.2711
-0.6021 D4 </s> -0.3010
-0.6021 D4 TO -0.2711
-0.6021 D5 </s> -0.3010
-0.6021 D5 TO -0.2711
-0.6021 D6 </s> -0.3010
-0.6021 D6 TO -0.2711
-0.6021 D7 </s> -0.3010
-0.6021 D7 TO -0.2760
-0.5563 D8 </s> -0.3010
-0.6532 D8 TO -0.2858
-0.6532 E1 </s> -0.3010
-0.5563 E1 TO -0.2863
-0.6021 E2 </s> -0.3010
-0.6021 E2 TO -0.2777
-0.6021 E3 </s> -0.3010
-0.6021 E3 TO -0.2711
-0.6021 E4 </s> -0.3010
-0.6021 E4 TO -0.2711
-0.6021 E5 </s> -0.3010
-0.6021 E5 TO -0.2711
-0.6021 E6 </s> -0.3010
-0.6021 E6 TO -0.2711
-0.6021 E7 </s> -0.3010
-0.6021 E7 TO -0.2760
-0.5563 E8 </s> -0.3010
-0.6532 E8 TO -0.2858
-0.6532 F1 </s> -0.3010
-0.5563 F1 TO -0.2863
-0.6021 F2 </s> -0.3010
-0.6021 F2 TO -0.2777
-0.6021 F3 </s> -0.3010
-0.6021 F3 TO -0.2711
-0.6021 F4 </s> -0.3010
-0.6021 F4 TO -0.2711
-0.6021 F5 </s> -0.3010
-0.6021 F5 TO -0.2711
-0.6021 F6 </s> -0.3010
-0.6021 F6 TO -0.2711
-0.6021 F7 </s> -0.3010
-0.6021 F7 TO -0.2760
-0.5563 F8 </s> -0.3010
-0.6532 F8 TO -0.2858
-0.6532 G1 </s> -0.3010
-0.5563 G1 TO -0.2879
-0.6021 G2 </s> -0.3010
-0.6021 G2 TO -0.2804
-0.6021 G3 </s> -0.3010
-0.6021 G3 TO -0.2744
-0.6021 G4 </s> -0.3010
-0.6021 G4 TO -0.2744
-0.6021 G5 </s> -0.3010
-0.6021 G5 TO -0.2744
-0.6021 G6 </s> -0.3010
-0.6021 G6 TO -0.2744
-0.6021 G7 </s> -0.3010
-0.6021 G7 TO -0.2788
-0.5563 G8 </s> -0.3010
-0.6532 G8 TO -0.2874
-0.7782 H1 </s> -0.3010
-0.4771 H1 TO -0.2922
-0.6435 H2 </s> -0.3010
-0.5643 H2 TO -0.2868
-0.6435 H3 </s> -0.3010
-0.5643 H3 TO -0.2831
-0.6435 H4 </s> -0.3010
-0.5643 H4 TO -0.2831
-0.6435 H5 </s> -0.3010
-0.5643 H5 TO -0.2831
-0.6435 H6 </s> -0.3010
-0.5643 H6 TO -0.2831
-0.6435 H7 </s> -0.3010
-0.5643 H7 TO -0.2858
-0.6021 H8 </s> -0.3010
-0.6021 H8 TO -0.2916
-2.4472 TO A1 -0.1761
-2.1461 TO A2 -0.1627
-2.1461 TO A3 -0.1627
-2.1461 TO A4 -0.1627
-2.1461 TO A5 -0.1627
-2.1461 TO A6 -0.1627
-2.1461 TO A7 -0.1627
-2.3222 TO A8 -0.1249
-2.3222 TO B1 -0.1919
-2.0212 TO B2 -0.1761
-2.0212 TO B3 -0.1761
-2.0212 TO B4 -0.1761
-2.0212 TO B5 -0.1761
-2.0212 TO B6 -0.1761
-2.0212 TO B7 -0.1761
-2.2253 TO B8 -0.1597
-2.3222 TO C1 -0.1919
-2.0212 TO C2 -0.1761
-2.0212 TO C3 -0.1761
-2.0212 TO C4 -0.1761
-2.0212 TO C5 -0.1761
-2.0212 TO C6 -0.1761
-2.0212 TO C7 -0.1761
-2.2253 TO C8 -0.1597
-2.3222 TO D1 -0.1919
-2.0212 TO D2 -0.1761
-2.0212 TO D3 -0.1761
-2.0212 TO D4 -0.1761
-2.0212 TO D5 -0.1761
-2.0212 TO D6 -0.1761
-2.0212 TO D7 -0.1761
-2.2253 TO D8 -0.1597
-2.3222 TO E1 -0.1919
-2.0212 TO E2 -0.1761
-2.0212 TO E3 -0.1761
-2.0212 TO E4 -0.1761
-2.0212 TO E5 -0.1761
-2.0212 TO E6 -0.1761
-2.0212 TO E7 -0.1761
-2.2253 TO E8 -0.1597
-2.3222 TO F1 -0.1919
-2.0212 TO F2 -0.1761
-2.0212 TO F3 -0.1761
-2.0212 TO F4 -0.1761
-2.0212 TO F5 -0.1761
-2.0212 TO F6 -0.1761
-2.0212 TO F7 -0.1761
-2.2253 TO F8 -0.1597
-2.3222 TO G1 -0.1919
-2.0212 TO G2 -0.1761
-2.0212 TO G3 -0.1761
-2.0212 TO G4 -0.1761
-2.0212 TO G5 -0.1761
-2.0212 TO G6 -0.1761
-2.0212 TO G7 -0.1761
-2.2253 TO G8 -0.1597
-2.6232 TO H1 -0.2218
-2.2253 TO H2 -0.1891
-2.2253 TO H3 -0.1891
-2.2253 TO H4 -0.1891
-2.2253 TO H5 -0.1891
-2.2253 TO H6 -0.1891
-2.2253 TO H7 -0.1891
-2.4472 TO H8 -0.1761

\3-grams:
-0.3010 <s> A1 TO
-0.3010 <s> A2 TO
-0.3010 <s> A3 TO
-0.3010 <s> A4 TO
-0.3010 <s> A5 TO
-0.3010 <s> A6 TO
-0.3010 <s> A7 TO
-0.3010 <s> A8 TO
-0.3010 <s> B1 TO
-0.3010 <s> B2 TO
-0.3010 <s> B3 TO
-0.3010 <s> B4 TO
-0.3010 <s> B5 TO
-0.3010 <s> B6 TO
-0.3010 <s> B7 TO
-0.3010 <s> B8 TO
-0.3010 <s> C1 TO
-0.3010 <s> C2 TO
-0.3010 <s> C3 TO
-0.3010 <s> C4 TO
-0.3010 <s> C5 TO
-0.3010 <s> C6 TO
-0.3010 <s> C7 TO
-0.3010 <s> C8 TO
-0.3010 <s> D1 TO
-0.3010 <s> D2 TO
-0.3010 <s> D3 TO
-0.3010 <s> D4 TO
-0.3010 <s> D5 TO
-0.3010 <s> D6 TO
-0.3010 <s> D7 TO
-0.3010 <s> D8 TO
-0.3010 <s> E1 TO
-0.3010 <s> E2 TO
-0.3010 <s> E3 TO
-0.3010 <s> E4 TO
-0.3010 <s> E5 TO
-0.3010 <s> E6 TO
-0.3010 <s> E7 TO
-0.3010 <s> E8 TO
-0.3010 <s> F1 TO
-0.3010 <s> F2 TO
-0.3010 <s> F3 TO
-0.3010 <s> F4 TO
-0.3010 <s> F5 TO
-0.3010 <s> F6 TO
-0.3010 <s> F7 TO
-0.3010 <s> F8 TO
-0.3010 <s> G1 TO
-0.3010 <s> G2 TO
-0.3010 <s> G3 TO
-0.3010 <s> G4 TO
-0.3010 <s> G5 TO
-0.3010 <s> G6 TO
-0.3010 <s> G7 TO
-0.3010 <s> G8 TO
-0.3010 <s> H1 TO
-0.3010 <s> H2 TO
-0.3010 <s> H3 TO
-0.3010 <s> H4 TO
-0.3010 <s> H5 TO
-0.3010 <s> H6 TO
-0.3010 <s> H7 TO
-0.3010 <s> H8 TO
-0.4771 A1 TO A2
-0.7782 A1 TO B2
-1.0000 A2 TO A1
-0.6990 A2 TO A3
-1.0000 A2 TO B1
-1.0000 A2 TO B3
-1.0000 A3 TO A2
-0.6990 A3 TO A4
-1.0000 A3 TO B2
-1.0000 A3 TO B4
-1.0000 A4 TO A3
-0.6990 A4 TO A5
-1.0000 A4 TO B3
-1.0000 A4 TO B5
-1.0000 A5 TO A4
-0.6990 A5 TO A6
-1.0000 A5 TO B4
-1.0000 A5 TO B6
-1.0000 A6 TO A5
-0.6990 A6 TO A7
-1.0000 A6 TO B5
-1.0000 A6 TO B7
-1.0000 A7 TO A6
-0.6990 A7 TO A8
-1.0000 A7 TO B6
-1.0000 A7 TO B8
-0.6021 A8 TO A7
-0.6021 A8 TO B7
-1.0000 B1 TO A1
-1.0000 B1 TO A2
-0.6990 B1 TO B2
-1.0000 B1 TO C2
-1.2041 B2 TO A1
-1.2041 B2 TO A2
-1.2041 B2 TO A3
-1.2041 B2 TO B1
-0.9031 B2 TO B3
-1.2041 B2 TO C1
-1.2041 B2 TO C3
-1.2041 B3 TO A2
-1.2041 B3 TO A3
-1.2041 B3 TO A4
-1.2041 B3 TO B2
-0.9031 B3 TO B4
-1.2041 B3 TO C2
-1.2041 B3 TO C4
-1.2041 B4 TO A3
-1.2041 B4 TO A4
-1.2041 B4 TO A5
-1.2041 B4 TO B3
-0.9031 B4 TO B5
-1.2041 B4 TO C3
-1.2041 B4 TO C5
-1.2041 B5 TO A4
-1.2041 B5 TO A5
-1.2041 B5 TO A6
-1.2041 B5 TO B4
-0.9031 B5 TO B6
-1.2041 B5 TO C4
-1.2041 B5 TO C6
-1.2041 B6 TO A5
-1.2041 B6 TO A6
-1.2041 B6 TO A7
-1.2041 B6 TO B5
-0.9031 B6 TO B7
-1.2041 B6 TO C5
-1.2041 B6 TO C7
-1.2041 B7 TO A6
-1.2041 B7 TO A7
-1.2041 B7 TO A8
-1.2041 B7 TO B6
-0.9031 B7 TO B8
-1.2041 B7 TO C6
-1.2041 B7 TO C8
-0.9031 B8 TO A7
-0.9031 B8 TO A8
-0.9031 B8 TO B7
-0.9031 B8 TO C7
-1.0000 C1 TO B1
-1.0000 C1 TO B2
-0.6990 C1 TO C2
-1.0000 C1 TO D2
-1.2041 C2 TO B1
-1.2041 C2 TO B2
-1.2041 C2 TO B3
-1.2041 C2 TO C1
-0.9031 C2 TO C3
-1.2041 C2 TO D1
-1.2041 C2 TO D3
-1.2041 C3 TO B2
-1.2041 C3 TO B3
-1.2041 C3 TO B4
-1.2041 C3 TO C2
-0.9031 C3 TO C4
-1.2041 C3 TO D2
-1.2041 C3 TO D4
-1.2041 C4 TO B3
-1.2041 C4 TO B4
-1.2041 C4 TO B5
-1.2041 C4 TO C3
-0.9031 C4 TO C5
-1.2041 C4 TO D3
-1.2041 C4 TO D5
-1.2041 C5 TO B4
-1.2041 C5 TO B5
-1.2041 C5 TO B6
-1.2041 C5 TO C4
-0.9031 C5 TO C6
-1.2041 C5 TO D4
-1.2041 C5 TO D6
-1.2041 C6 TO B5
-1.2041 C6 TO B6
-1.2041 C6 TO B7
-1.2041 C6 TO C5
-0.9031 C6 TO C7
-1.2041 C6 TO D5
-1.2041 C6 TO D7
-1.2041 C7 TO B6
-1.2041 C7 TO B7
-1.2041 C7 TO B8
-1.2041 C7 TO C6
-0.9031 C7 TO C8
-1.2041 C7 TO D6
-1.2041 C7 TO D8
-0.9031 C8 TO B7
-0.9031 C8 TO B8
-0.9031 C8 TO C7
-0.9031 C8 TO D7
-1.0000 D1 TO C1
-1.0000 D1 TO C2
-0.6990 D1 TO D2
-1.0000 D1 TO E2
-1.2041 D2 TO C1
-1.2041 D2 TO C2
-1.2041 D2 TO C3
-1.2041 D2 TO D1
-0.9031 D2 TO D3
-1.2041 D2 TO E1
-1.2041 D2 TO E3
-1.2041 D3 TO C2
-1.2041 D3 TO C3
-1.2041 D3 TO C4
-1.2041 D3 TO D2
-0.9031 D3 TO D4
-1.2041 D3 TO E2
-1.2041 D3 TO E4
-1.2041 D4 TO C3
-1.2041 D4 TO C4
-1.2041 D4 TO C5
-1.2041 D4 TO D3
-0.9031 D4 TO D5
-1.2041 D4 TO E3
-1.2041 D4 TO E5
-1.2041 D5 TO C4
-1.2041 D5 TO C5
-1.2041 D5 TO C6
-1.2041 D5 TO D4
-0.9031 D5 TO D6
-1.2041 D5 TO E4
-1.2041 D5 TO E6
-1.2041 D6 TO C5
-1.2041 D6 TO C6
-1.2041 D6 TO C7
-1.2041 D6 TO D5
-0.9031 D6 TO D7
-1.2041 D6 TO E5
-1.2041 D6 TO E7
-1.2041 D7 TO C6
-1.2041 D7 TO C7
-1.2041 D7 TO C8
-1.2041 D7 TO D6
-0.9031 D7 TO D8
-1.2041 D7 TO E6
-1.2041 D7 TO E8
-0.9031 D8 TO C7
-0.9031 D8 TO C8
-0.9031 D8 TO D7
-0.9031 D8 TO E7
-1.0000 E1 TO D1
-1.0000 E1 TO D2
-0.6990 E1 TO E2
-1.0000 E1 TO F2
-1.2041 E2 TO D1
-1.2041 E2 TO D2
-1.2041 E2 TO D3
-1.2041 E2 TO E1
-0.9031 E2 TO E3
-1.2041 E2 TO F1
-1.2041 E2 TO F3
-1.2041 E3 TO D2
-1.2041 E3 TO D3
-1.2041 E3 TO D4
-1.2041 E3 TO E2
-0.9031 E3 TO E4
-1.2041 E3 TO F2
-1.2041 E3 TO F4
-1.2041 E4 TO D3
-1.2041 E4 TO D4
-1.2041 E4 TO D5
-1.2041 E4 TO E3
-0.9031 E4 TO E5
-1.2041 E4 TO F3
-1.2041 E4 TO F5
-1.2041 E5 TO D4
-1.2041 E5 TO D5
-1.2041 E5 TO D6
-1.2041 E5 TO E4
-0.9031 E5 TO E6
-1.2041 E5 TO F4
-1.2041 E5 TO F6
-1.2041 E6 TO D5
-1.2041 E6 TO D6
-1.2041 E6 TO D7
-1.2041 E6 TO E5
-0.9031 E6 TO E7
-1.2041 E6 TO F5
-1.2041 E6 TO F7
-1.2041 E7 TO D6
-1.2041 E7 TO D7
-1.2041 E7 TO D8
-1.2041 E7 TO E6
-0.9031 E7 TO E8
-1.2041 E7 TO F6
-1.2041 E7 TO F8
-0.9031 E8 TO D7
-0.9031 E8 TO D8
-0.9031 E8 TO E7
-0.9031 E8 TO F7
-1.0000 F1 TO E1
-1.0000 F1 TO E2
-0.6990 F1 TO F2
-1.0000 F1 TO G2
-1.2041 F2 TO E1
-1.2041 F2 TO E2
-1.2041 F2 TO E3
-1.2041 F2 TO F1
-0.9031 F2 TO F3
-1.2041 F2 TO G1
-1.2041 F2 TO G3
-1.2041 F3 TO E2
-1.2041 F3 TO E3
-1.2041 F3 TO E4
-1.2041 F3 TO F2
-0.9031 F3 TO F4
-1.2041 F3 TO G2
-1.2041 F3 TO G4
-1.2041 F4 TO E3
-1.2041 F4 TO E4
-1.2041 F4 TO E5
-1.2041 F4 TO F3
-0.9031 F4 TO F5
-1.2041 F4 TO G3
-1.2041 F4 TO G5
-1.2041 F5 TO E4
-1.2041 F5 TO E5
-1.2041 F5 TO E6
-1.2041 F5 TO F4
-0.9031 F5 TO F6
-1.2041 F5 TO G4
-1.2041 F5 TO G6
-1.2041 F6 TO E5
-1.2041 F6 TO E6
-1.2041 F6 TO E7
-1.2041 F6 TO F5
-0.9031 F6 TO F7
-1.2041 F6 TO G5
-1.2041 F6 TO G7
-1.2041 F7 TO E6
-1.2041 F7 TO E7
-1.2041 F7 TO E8
-1.2041 F7 TO F6
-0.9031 F7 TO F8
-1.2041 F7 TO G6
-1.2041 F7 TO G8
-0.9031 F8 TO E7
-0.9031 F8 TO E8
-0.9031 F8 TO F7
-0.9031 F8 TO G7
-1.0000 G1 TO F1
-1.0000 G1 TO F2
-0.6990 G1 TO G2
-1.0000 G1 TO H2
-1.2041 G2 TO F1
-1.2041 G2 TO F2
-1.2041 G2 TO F3
-1.2041 G2 TO G1
-0.9031 G2 TO G3
-1.2041 G2 TO H1
-1.2041 G2 TO H3
-1.2041 G3 TO F2
-1.2041 G3 TO F3
-1.2041 G3 TO F4
-1.2041 G3 TO G2
-0.9031 G3 TO G4
-1.2041 G3 TO H2
-1.2041 G3 TO H4
-1.2041 G4 TO F3
-1.2041 G4 TO F4
-1.2041 G4 TO F5
-1.2041 G4 TO G3
-0.9031 G4 TO G5
-1.2041 G4 TO H3
-1.2041 G4 TO H5
-1.2041 G5 TO F4
-1.2041 G5 TO F5
-1.2041 G5 TO F6
-1.2041 G5 TO G4
-0.9031 G5 TO G6
-1.2041 G5 TO H4
-1.2041 G5 TO H6
-1.2041 G6 TO F5
-1.2041 G6 TO F6
-1.2041 G6 TO F7
-1.2041 G6 TO G5
-0.9031 G6 TO G7
-1.2041 G6 TO H5
-1.2041 G6 TO H7
-1.2041 G7 TO F6
-1.2041 G7 TO F7
-1.2041 G7 TO F8
-1.2041 G7 TO G6
-0.9031 G7 TO G8
-1.2041 G7 TO H6
-1.2041 G7 TO H8
-0.9031 G8 TO F7
-0.9031 G8 TO F8
-0.9031 G8 TO G7
-0.9031 G8 TO H7
-0.9031 H1 TO G1
-0.9031 H1 TO G2
-0.6021 H1 TO H2
-1.0792 H2 TO G1
-1.0792 H2 TO G2
-1.0792 H2 TO G3
-1.0792 H2 TO H1
-0.7782 H2 TO H3
-1.0792 H3 TO G2
-1.0792 H3 TO G3
-1.0792 H3 TO G4
-1.0792 H3 TO H2
-0.7782 H3 TO H4
-1.0792 H4 TO G3
-1.0792 H4 TO G4
-1.0792 H4 TO G5
-1.0792 H4 TO H3
-0.7782 H4 TO H5
-1.0792 H5 TO G4
-1.0792 H5 TO G5
-1.0792 H5 TO G6
-1.0792 H5 TO H4
-0.7782 H5 TO H6
-1.0792 H6 TO G5
-1.0792 H6 TO G6
-1.0792 H6 TO G7
-1.0792 H6 TO H5
-0.7782 H6 TO H7
-1.0792 H7 TO G6
-1.0792 H7 TO G7
-1.0792 H7 TO G8
-1.0792 H7 TO H6
-0.7782 H7 TO H8
-0.7782 H8 TO G7
-0.7782 H8 TO G8
-0.7782 H8 TO H7
-0.3010 TO A1 </s>
-0.3010 TO A2 </s>
-0.3010 TO A3 </s>
-0.3010 TO A4 </s>
-0.3010 TO A5 </s>
-0.3010 TO A6 </s>
-0.3010 TO A7 </s>
-0.3010 TO A8 </s>
-0.3010 TO B1 </s>
-0.3010 TO B2 </s>
-0.3010 TO B3 </s>
-0.3010 TO B4 </s>
-0.3010 TO B5 </s>
-0.3010 TO B6 </s>
-0.3010 TO B7 </s>
-0.3010 TO B8 </s>
-0.3010 TO C1 </s>
-0.3010 TO C2 </s>
-0.3010 TO C3 </s>
-0.3010 TO C4 </s>
-0.3010 TO C5 </s>
-0.3010 TO C6 </s>
-0.3010 TO C7 </s>
-0.3010 TO C8 </s>
-0.3010 TO D1 </s>
-0.3010 TO D2 </s>
-0.3010 TO D3 </s>
-0.3010 TO D4 </s>
-0.3010 TO D5 </s>
-0.3010 TO D6 </s>
-0.3010 TO D7 </s>
-0.3010 TO D8 </s>
-0.3010 TO E1 </s>
-0.3010 TO E2 </s>
-0.3010 TO E3 </s>
-0.3010 TO E4 </s>
-0.3010 TO E5 </s>
-0.3010 TO E6 </s>
-0.3010 TO E7 </s>
-0.3010 TO E8 </s>
-0.3010 TO F1 </s>
-0.3010 TO F2 </s>
-0.3010 TO F3 </s>
-0.3010 TO F4 </s>
-0.3010 TO F5 </s>
-0.3010 TO F6 </s>
-0.3010 TO F7 </s>
-0.3010 TO F8 </s>
-0.3010 TO G1 </s>
-0.3010 TO G2 </s>
-0.3010 TO G3 </s>
-0.3010 TO G4 </s>
-0.3010 TO G5 </s>
-0.3010 TO G6 </s>
-0.3010 TO G7 </s>
-0.3010 TO G8 </s>
-0.3010 TO H1 </s>
-0.3010 TO H2 </s>
-0.3010 TO H3 </s>
-0.3010 TO H4 </s>
-0.3010 TO H5 </s>
-0.3010 TO H6 </s>
-0.3010 TO H7 </s>
-0.3010 TO H8 </s>

\end\
